digraph Tree {
node [shape=box, style="filled, rounded", color="black", fontname=helvetica] ;
edge [fontname=helvetica] ;
0 [label="visits <= 0.5\ngini = 0.482\nsamples = 47188\nvalue = [28096, 19092]\nclass = readmission", fillcolor="#f7d7c0"] ;
1 [label="number_diagnoses <= 5.5\ngini = 0.46\nsamples = 34912\nvalue = [22385, 12527]\nclass = readmission", fillcolor="#f4c8a8"] ;
0 -> 1 [labeldistance=2.5, labelangle=45, headlabel="True"] ;
2 [label="admission_type_id <= 5.5\ngini = 0.405\nsamples = 9195\nvalue = [6600, 2595]\nclass = readmission", fillcolor="#efb387"] ;
1 -> 2 ;
3 [label="age_cat <= 6.5\ngini = 0.394\nsamples = 8550\nvalue = [6241, 2309]\nclass = readmission", fillcolor="#efb082"] ;
2 -> 3 ;
4 [label="diabetesMed <= 0.5\ngini = 0.371\nsamples = 5813\nvalue = [4383, 1430]\nclass = readmission", fillcolor="#edaa7a"] ;
3 -> 4 ;
5 [label="number_diagnoses <= 2.5\ngini = 0.304\nsamples = 1414\nvalue = [1150, 264]\nclass = readmission", fillcolor="#eb9e66"] ;
4 -> 5 ;
6 [label="gini = 0.137\nsamples = 95\nvalue = [88, 7]\nclass = readmission", fillcolor="#e78b49"] ;
5 -> 6 ;
7 [label="gini = 0.314\nsamples = 1319\nvalue = [1062, 257]\nclass = readmission", fillcolor="#eb9f69"] ;
5 -> 7 ;
8 [label="number_diagnoses <= 1.5\ngini = 0.39\nsamples = 4399\nvalue = [3233, 1166]\nclass = readmission", fillcolor="#eeae80"] ;
4 -> 8 ;
9 [label="gini = 0.198\nsamples = 108\nvalue = [96, 12]\nclass = readmission", fillcolor="#e89152"] ;
8 -> 9 ;
10 [label="gini = 0.393\nsamples = 4291\nvalue = [3137, 1154]\nclass = readmission", fillcolor="#efaf82"] ;
8 -> 10 ;
11 [label="admission_type_id <= 1.5\ngini = 0.436\nsamples = 2737\nvalue = [1858, 879]\nclass = readmission", fillcolor="#f1bd97"] ;
3 -> 11 ;
12 [label="number_diagnoses <= 4.5\ngini = 0.458\nsamples = 1332\nvalue = [860, 472]\nclass = readmission", fillcolor="#f3c6a6"] ;
11 -> 12 ;
13 [label="gini = 0.481\nsamples = 441\nvalue = [263, 178]\nclass = readmission", fillcolor="#f7d6bf"] ;
12 -> 13 ;
14 [label="gini = 0.442\nsamples = 891\nvalue = [597, 294]\nclass = readmission", fillcolor="#f2bf9b"] ;
12 -> 14 ;
15 [label="admission_type_id <= 2.5\ngini = 0.412\nsamples = 1405\nvalue = [998, 407]\nclass = readmission", fillcolor="#f0b48a"] ;
11 -> 15 ;
16 [label="gini = 0.384\nsamples = 687\nvalue = [509, 178]\nclass = readmission", fillcolor="#eead7e"] ;
15 -> 16 ;
17 [label="gini = 0.434\nsamples = 718\nvalue = [489, 229]\nclass = readmission", fillcolor="#f1bc96"] ;
15 -> 17 ;
18 [label="number_diagnoses <= 4.5\ngini = 0.494\nsamples = 645\nvalue = [359, 286]\nclass = readmission", fillcolor="#fae5d7"] ;
2 -> 18 ;
19 [label="age_cat <= 6.5\ngini = 0.462\nsamples = 318\nvalue = [203, 115]\nclass = readmission", fillcolor="#f4c8a9"] ;
18 -> 19 ;
20 [label="age_cat <= 2.5\ngini = 0.438\nsamples = 235\nvalue = [159, 76]\nclass = readmission", fillcolor="#f1bd98"] ;
19 -> 20 ;
21 [label="gini = 0.5\nsamples = 39\nvalue = [19, 20]\nclass = no-readmission", fillcolor="#f5fafe"] ;
20 -> 21 ;
22 [label="gini = 0.408\nsamples = 196\nvalue = [140, 56]\nclass = readmission", fillcolor="#efb388"] ;
20 -> 22 ;
23 [label="gender_cat <= 0.5\ngini = 0.498\nsamples = 83\nvalue = [44, 39]\nclass = readmission", fillcolor="#fcf1e8"] ;
19 -> 23 ;
24 [label="gini = 0.464\nsamples = 41\nvalue = [26, 15]\nclass = readmission", fillcolor="#f4caab"] ;
23 -> 24 ;
25 [label="gini = 0.49\nsamples = 42\nvalue = [18, 24]\nclass = no-readmission", fillcolor="#cee6f8"] ;
23 -> 25 ;
26 [label="admission_type_id <= 6.5\ngini = 0.499\nsamples = 327\nvalue = [156, 171]\nclass = no-readmission", fillcolor="#eef6fd"] ;
18 -> 26 ;
27 [label="gender_cat <= 0.5\ngini = 0.487\nsamples = 259\nvalue = [109, 150]\nclass = no-readmission", fillcolor="#c9e4f8"] ;
26 -> 27 ;
28 [label="gini = 0.455\nsamples = 140\nvalue = [49, 91]\nclass = no-readmission", fillcolor="#a4d2f3"] ;
27 -> 28 ;
29 [label="gini = 0.5\nsamples = 119\nvalue = [60, 59]\nclass = readmission", fillcolor="#fffdfc"] ;
27 -> 29 ;
30 [label="age_cat <= 4.5\ngini = 0.427\nsamples = 68\nvalue = [47, 21]\nclass = readmission", fillcolor="#f1b991"] ;
26 -> 30 ;
31 [label="gini = 0.0\nsamples = 9\nvalue = [9, 0]\nclass = readmission", fillcolor="#e58139"] ;
30 -> 31 ;
32 [label="gini = 0.458\nsamples = 59\nvalue = [38, 21]\nclass = readmission", fillcolor="#f3c7a6"] ;
30 -> 32 ;
33 [label="diabetesMed <= 0.5\ngini = 0.474\nsamples = 25717\nvalue = [15785, 9932]\nclass = readmission", fillcolor="#f5d0b6"] ;
1 -> 33 ;
34 [label="number_diagnoses <= 6.5\ngini = 0.44\nsamples = 6460\nvalue = [4348, 2112]\nclass = readmission", fillcolor="#f2be99"] ;
33 -> 34 ;
35 [label="admission_type_id <= 5.5\ngini = 0.382\nsamples = 1056\nvalue = [784, 272]\nclass = readmission", fillcolor="#eead7e"] ;
34 -> 35 ;
36 [label="age_cat <= 6.5\ngini = 0.356\nsamples = 897\nvalue = [689, 208]\nclass = readmission", fillcolor="#eda775"] ;
35 -> 36 ;
37 [label="gini = 0.311\nsamples = 539\nvalue = [435, 104]\nclass = readmission", fillcolor="#eb9f68"] ;
36 -> 37 ;
38 [label="gini = 0.412\nsamples = 358\nvalue = [254, 104]\nclass = readmission", fillcolor="#f0b58a"] ;
36 -> 38 ;
39 [label="gender_cat <= 0.5\ngini = 0.481\nsamples = 159\nvalue = [95, 64]\nclass = readmission", fillcolor="#f7d6be"] ;
35 -> 39 ;
40 [label="gini = 0.5\nsamples = 92\nvalue = [47, 45]\nclass = readmission", fillcolor="#fefaf7"] ;
39 -> 40 ;
41 [label="gini = 0.406\nsamples = 67\nvalue = [48, 19]\nclass = readmission", fillcolor="#efb387"] ;
39 -> 41 ;
42 [label="admission_type_id <= 5.5\ngini = 0.449\nsamples = 5404\nvalue = [3564, 1840]\nclass = readmission", fillcolor="#f2c29f"] ;
34 -> 42 ;
43 [label="admission_type_id <= 2.5\ngini = 0.446\nsamples = 5141\nvalue = [3415, 1726]\nclass = readmission", fillcolor="#f2c19d"] ;
42 -> 43 ;
44 [label="gini = 0.456\nsamples = 3971\nvalue = [2572, 1399]\nclass = readmission", fillcolor="#f3c6a5"] ;
43 -> 44 ;
45 [label="gini = 0.403\nsamples = 1170\nvalue = [843, 327]\nclass = readmission", fillcolor="#efb286"] ;
43 -> 45 ;
46 [label="age_cat <= 5.5\ngini = 0.491\nsamples = 263\nvalue = [149, 114]\nclass = readmission", fillcolor="#f9e1d0"] ;
42 -> 46 ;
47 [label="gini = 0.484\nsamples = 61\nvalue = [25, 36]\nclass = no-readmission", fillcolor="#c2e1f7"] ;
46 -> 47 ;
48 [label="gini = 0.474\nsamples = 202\nvalue = [124, 78]\nclass = readmission", fillcolor="#f5d0b6"] ;
46 -> 48 ;
49 [label="age_cat <= 6.5\ngini = 0.482\nsamples = 19257\nvalue = [11437, 7820]\nclass = readmission", fillcolor="#f7d7c0"] ;
33 -> 49 ;
50 [label="number_diagnoses <= 8.5\ngini = 0.469\nsamples = 10367\nvalue = [6467, 3900]\nclass = readmission", fillcolor="#f5cdb0"] ;
49 -> 50 ;
51 [label="admission_type_id <= 4.0\ngini = 0.454\nsamples = 4895\nvalue = [3191, 1704]\nclass = readmission", fillcolor="#f3c4a3"] ;
50 -> 51 ;
52 [label="gini = 0.444\nsamples = 4371\nvalue = [2915, 1456]\nclass = readmission", fillcolor="#f2c09c"] ;
51 -> 52 ;
53 [label="gini = 0.499\nsamples = 524\nvalue = [276, 248]\nclass = readmission", fillcolor="#fcf2eb"] ;
51 -> 53 ;
54 [label="age_cat <= 2.5\ngini = 0.481\nsamples = 5472\nvalue = [3276, 2196]\nclass = readmission", fillcolor="#f6d5be"] ;
50 -> 54 ;
55 [label="gini = 0.288\nsamples = 86\nvalue = [71, 15]\nclass = readmission", fillcolor="#ea9c63"] ;
54 -> 55 ;
56 [label="gini = 0.482\nsamples = 5386\nvalue = [3205, 2181]\nclass = readmission", fillcolor="#f7d7c0"] ;
54 -> 56 ;
57 [label="admission_type_id <= 2.5\ngini = 0.493\nsamples = 8890\nvalue = [4970, 3920]\nclass = readmission", fillcolor="#fae4d5"] ;
49 -> 57 ;
58 [label="age_cat <= 8.5\ngini = 0.496\nsamples = 6433\nvalue = [3520, 2913]\nclass = readmission", fillcolor="#fbe9dd"] ;
57 -> 58 ;
59 [label="gini = 0.496\nsamples = 6041\nvalue = [3275, 2766]\nclass = readmission", fillcolor="#fbebe0"] ;
58 -> 59 ;
60 [label="gini = 0.469\nsamples = 392\nvalue = [245, 147]\nclass = readmission", fillcolor="#f5cdb0"] ;
58 -> 60 ;
61 [label="admission_type_id <= 3.5\ngini = 0.484\nsamples = 2457\nvalue = [1450, 1007]\nclass = readmission", fillcolor="#f7d9c3"] ;
57 -> 61 ;
62 [label="gini = 0.471\nsamples = 1606\nvalue = [996, 610]\nclass = readmission", fillcolor="#f5ceb2"] ;
61 -> 62 ;
63 [label="gini = 0.498\nsamples = 851\nvalue = [454, 397]\nclass = readmission", fillcolor="#fcefe6"] ;
61 -> 63 ;
64 [label="visits <= 2.5\ngini = 0.498\nsamples = 12276\nvalue = [5711, 6565]\nclass = no-readmission", fillcolor="#e5f2fc"] ;
0 -> 64 [labeldistance=2.5, labelangle=-45, headlabel="False"] ;
65 [label="number_diagnoses <= 5.5\ngini = 0.5\nsamples = 9087\nvalue = [4452, 4635]\nclass = no-readmission", fillcolor="#f7fbfe"] ;
64 -> 65 ;
66 [label="age_cat <= 7.5\ngini = 0.495\nsamples = 1577\nvalue = [865, 712]\nclass = readmission", fillcolor="#fae9dc"] ;
65 -> 66 ;
67 [label="admission_type_id <= 5.5\ngini = 0.491\nsamples = 1362\nvalue = [772, 590]\nclass = readmission", fillcolor="#f9e1d0"] ;
66 -> 67 ;
68 [label="admission_type_id <= 1.5\ngini = 0.488\nsamples = 1190\nvalue = [689, 501]\nclass = readmission", fillcolor="#f8ddc9"] ;
67 -> 68 ;
69 [label="gini = 0.498\nsamples = 512\nvalue = [274, 238]\nclass = readmission", fillcolor="#fceee5"] ;
68 -> 69 ;
70 [label="gini = 0.475\nsamples = 678\nvalue = [415, 263]\nclass = readmission", fillcolor="#f5d1b6"] ;
68 -> 70 ;
71 [label="admission_type_id <= 7.0\ngini = 0.499\nsamples = 172\nvalue = [83, 89]\nclass = no-readmission", fillcolor="#f2f8fd"] ;
67 -> 71 ;
72 [label="gini = 0.49\nsamples = 135\nvalue = [58, 77]\nclass = no-readmission", fillcolor="#cee7f9"] ;
71 -> 72 ;
73 [label="gini = 0.438\nsamples = 37\nvalue = [25, 12]\nclass = readmission", fillcolor="#f1bd98"] ;
71 -> 73 ;
74 [label="admission_type_id <= 7.0\ngini = 0.491\nsamples = 215\nvalue = [93, 122]\nclass = no-readmission", fillcolor="#d0e8f9"] ;
66 -> 74 ;
75 [label="visits <= 1.5\ngini = 0.487\nsamples = 207\nvalue = [87, 120]\nclass = no-readmission", fillcolor="#c9e4f8"] ;
74 -> 75 ;
76 [label="gini = 0.495\nsamples = 157\nvalue = [71, 86]\nclass = no-readmission", fillcolor="#dceefa"] ;
75 -> 76 ;
77 [label="gini = 0.435\nsamples = 50\nvalue = [16, 34]\nclass = no-readmission", fillcolor="#96cbf1"] ;
75 -> 77 ;
78 [label="number_diagnoses <= 4.5\ngini = 0.375\nsamples = 8\nvalue = [6, 2]\nclass = readmission", fillcolor="#eeab7b"] ;
74 -> 78 ;
79 [label="gini = 0.0\nsamples = 2\nvalue = [2, 0]\nclass = readmission", fillcolor="#e58139"] ;
78 -> 79 ;
80 [label="gini = 0.444\nsamples = 6\nvalue = [4, 2]\nclass = readmission", fillcolor="#f2c09c"] ;
78 -> 80 ;
81 [label="admission_type_id <= 5.5\ngini = 0.499\nsamples = 7510\nvalue = [3587, 3923]\nclass = no-readmission", fillcolor="#eef7fd"] ;
65 -> 81 ;
82 [label="admission_type_id <= 2.5\ngini = 0.5\nsamples = 6897\nvalue = [3343, 3554]\nclass = no-readmission", fillcolor="#f3f9fd"] ;
81 -> 82 ;
83 [label="age_cat <= 8.5\ngini = 0.498\nsamples = 5088\nvalue = [2377, 2711]\nclass = no-readmission", fillcolor="#e7f3fc"] ;
82 -> 83 ;
84 [label="gini = 0.497\nsamples = 4911\nvalue = [2269, 2642]\nclass = no-readmission", fillcolor="#e3f1fb"] ;
83 -> 84 ;
85 [label="gini = 0.476\nsamples = 177\nvalue = [108, 69]\nclass = readmission", fillcolor="#f6d2b8"] ;
83 -> 85 ;
86 [label="age_cat <= 6.5\ngini = 0.498\nsamples = 1809\nvalue = [966, 843]\nclass = readmission", fillcolor="#fcefe6"] ;
82 -> 86 ;
87 [label="gini = 0.488\nsamples = 968\nvalue = [560, 408]\nclass = readmission", fillcolor="#f8ddc9"] ;
86 -> 87 ;
88 [label="gini = 0.499\nsamples = 841\nvalue = [406, 435]\nclass = no-readmission", fillcolor="#f2f8fd"] ;
86 -> 88 ;
89 [label="number_diagnoses <= 8.5\ngini = 0.479\nsamples = 613\nvalue = [244, 369]\nclass = no-readmission", fillcolor="#bcdef6"] ;
81 -> 89 ;
90 [label="age_cat <= 6.5\ngini = 0.448\nsamples = 375\nvalue = [127, 248]\nclass = no-readmission", fillcolor="#9ecff2"] ;
89 -> 90 ;
91 [label="gini = 0.475\nsamples = 173\nvalue = [67, 106]\nclass = no-readmission", fillcolor="#b6dbf5"] ;
90 -> 91 ;
92 [label="gini = 0.418\nsamples = 202\nvalue = [60, 142]\nclass = no-readmission", fillcolor="#8dc6f0"] ;
90 -> 92 ;
93 [label="age_cat <= 7.5\ngini = 0.5\nsamples = 238\nvalue = [117, 121]\nclass = no-readmission", fillcolor="#f8fcfe"] ;
89 -> 93 ;
94 [label="gini = 0.495\nsamples = 204\nvalue = [92, 112]\nclass = no-readmission", fillcolor="#dceefa"] ;
93 -> 94 ;
95 [label="gini = 0.389\nsamples = 34\nvalue = [25, 9]\nclass = readmission", fillcolor="#eeae80"] ;
93 -> 95 ;
96 [label="visits <= 4.5\ngini = 0.478\nsamples = 3189\nvalue = [1259, 1930]\nclass = no-readmission", fillcolor="#baddf6"] ;
64 -> 96 ;
97 [label="age_cat <= 5.5\ngini = 0.485\nsamples = 2140\nvalue = [887, 1253]\nclass = no-readmission", fillcolor="#c5e2f7"] ;
96 -> 97 ;
98 [label="admission_type_id <= 5.5\ngini = 0.497\nsamples = 644\nvalue = [298, 346]\nclass = no-readmission", fillcolor="#e4f1fb"] ;
97 -> 98 ;
99 [label="admission_type_id <= 4.0\ngini = 0.499\nsamples = 589\nvalue = [285, 304]\nclass = no-readmission", fillcolor="#f3f9fd"] ;
98 -> 99 ;
100 [label="gini = 0.497\nsamples = 516\nvalue = [238, 278]\nclass = no-readmission", fillcolor="#e3f1fb"] ;
99 -> 100 ;
101 [label="gini = 0.459\nsamples = 73\nvalue = [47, 26]\nclass = readmission", fillcolor="#f3c7a7"] ;
99 -> 101 ;
102 [label="age_cat <= 3.5\ngini = 0.361\nsamples = 55\nvalue = [13, 42]\nclass = no-readmission", fillcolor="#76bbed"] ;
98 -> 102 ;
103 [label="gini = 0.0\nsamples = 6\nvalue = [0, 6]\nclass = no-readmission", fillcolor="#399de5"] ;
102 -> 103 ;
104 [label="gini = 0.39\nsamples = 49\nvalue = [13, 36]\nclass = no-readmission", fillcolor="#80c0ee"] ;
102 -> 104 ;
105 [label="number_diagnoses <= 4.5\ngini = 0.477\nsamples = 1496\nvalue = [589, 907]\nclass = no-readmission", fillcolor="#baddf6"] ;
97 -> 105 ;
106 [label="gender_cat <= 0.5\ngini = 0.5\nsamples = 61\nvalue = [31, 30]\nclass = readmission", fillcolor="#fefbf9"] ;
105 -> 106 ;
107 [label="gini = 0.475\nsamples = 31\nvalue = [12, 19]\nclass = no-readmission", fillcolor="#b6dbf5"] ;
106 -> 107 ;
108 [label="gini = 0.464\nsamples = 30\nvalue = [19, 11]\nclass = readmission", fillcolor="#f4caac"] ;
106 -> 108 ;
109 [label="age_cat <= 8.5\ngini = 0.475\nsamples = 1435\nvalue = [558, 877]\nclass = no-readmission", fillcolor="#b7dbf6"] ;
105 -> 109 ;
110 [label="gini = 0.474\nsamples = 1393\nvalue = [537, 856]\nclass = no-readmission", fillcolor="#b5daf5"] ;
109 -> 110 ;
111 [label="gini = 0.5\nsamples = 42\nvalue = [21, 21]\nclass = readmission", fillcolor="#ffffff"] ;
109 -> 111 ;
112 [label="admission_type_id <= 1.5\ngini = 0.458\nsamples = 1049\nvalue = [372, 677]\nclass = no-readmission", fillcolor="#a6d3f3"] ;
96 -> 112 ;
113 [label="diabetesMed <= 0.5\ngini = 0.425\nsamples = 561\nvalue = [172, 389]\nclass = no-readmission", fillcolor="#91c8f0"] ;
112 -> 113 ;
114 [label="number_diagnoses <= 6.5\ngini = 0.481\nsamples = 112\nvalue = [45, 67]\nclass = no-readmission", fillcolor="#bedff6"] ;
113 -> 114 ;
115 [label="gini = 0.278\nsamples = 12\nvalue = [2, 10]\nclass = no-readmission", fillcolor="#61b1ea"] ;
114 -> 115 ;
116 [label="gini = 0.49\nsamples = 100\nvalue = [43, 57]\nclass = no-readmission", fillcolor="#cee7f9"] ;
114 -> 116 ;
117 [label="age_cat <= 7.5\ngini = 0.406\nsamples = 449\nvalue = [127, 322]\nclass = no-readmission", fillcolor="#87c4ef"] ;
113 -> 117 ;
118 [label="gini = 0.386\nsamples = 345\nvalue = [90, 255]\nclass = no-readmission", fillcolor="#7fc0ee"] ;
117 -> 118 ;
119 [label="gini = 0.458\nsamples = 104\nvalue = [37, 67]\nclass = no-readmission", fillcolor="#a6d3f3"] ;
117 -> 119 ;
120 [label="age_cat <= 3.5\ngini = 0.484\nsamples = 488\nvalue = [200, 288]\nclass = no-readmission", fillcolor="#c2e1f7"] ;
112 -> 120 ;
121 [label="admission_type_id <= 4.5\ngini = 0.475\nsamples = 49\nvalue = [30, 19]\nclass = readmission", fillcolor="#f5d1b6"] ;
120 -> 121 ;
122 [label="gini = 0.393\nsamples = 41\nvalue = [30, 11]\nclass = readmission", fillcolor="#efaf82"] ;
121 -> 122 ;
123 [label="gini = 0.0\nsamples = 8\nvalue = [0, 8]\nclass = no-readmission", fillcolor="#399de5"] ;
121 -> 123 ;
124 [label="visits <= 10.5\ngini = 0.475\nsamples = 439\nvalue = [170, 269]\nclass = no-readmission", fillcolor="#b6dbf5"] ;
120 -> 124 ;
125 [label="gini = 0.483\nsamples = 386\nvalue = [157, 229]\nclass = no-readmission", fillcolor="#c1e0f7"] ;
124 -> 125 ;
126 [label="gini = 0.37\nsamples = 53\nvalue = [13, 40]\nclass = no-readmission", fillcolor="#79bded"] ;
124 -> 126 ;
}